digraph Tree {
node [shape=box] ;
0 [label="satisfaction_level <= 0.465\ngini = 0.364\nsamples = 11999\nvalue = [9134, 2865]"] ;
1 [label="number_project <= 2.5\ngini = 0.477\nsamples = 3354\nvalue = [1315, 2039]"] ;
0 -> 1 [labeldistance=2.5, labelangle=45, headlabel="True"] ;
2 [label="last_evaluation <= 0.575\ngini = 0.217\nsamples = 1390\nvalue = [172, 1218]"] ;
1 -> 2 ;
3 [label="last_evaluation <= 0.445\ngini = 0.102\nsamples = 1282\nvalue = [69, 1213]"] ;
2 -> 3 ;
4 [label="gini = 0.0\nsamples = 33\nvalue = [33, 0]"] ;
3 -> 4 ;
5 [label="average_montly_hours <= 125.5\ngini = 0.056\nsamples = 1249\nvalue = [36, 1213]"] ;
3 -> 5 ;
6 [label="gini = 0.0\nsamples = 11\nvalue = [11, 0]"] ;
5 -> 6 ;
7 [label="average_montly_hours <= 163.5\ngini = 0.04\nsamples = 1238\nvalue = [25, 1213]"] ;
5 -> 7 ;
8 [label="satisfaction_level <= 0.34\ngini = 0.018\nsamples = 1219\nvalue = [11, 1208]"] ;
7 -> 8 ;
9 [label="average_montly_hours <= 140.0\ngini = 0.346\nsamples = 9\nvalue = [7, 2]"] ;
8 -> 9 ;
10 [label="gini = 0.0\nsamples = 2\nvalue = [0, 2]"] ;
9 -> 10 ;
11 [label="gini = 0.0\nsamples = 7\nvalue = [7, 0]"] ;
9 -> 11 ;
12 [label="salary_high <= 0.5\ngini = 0.007\nsamples = 1210\nvalue = [4, 1206]"] ;
8 -> 12 ;
13 [label="sales_sales <= 0.5\ngini = 0.002\nsamples = 1171\nvalue = [1, 1170]"] ;
12 -> 13 ;
14 [label="gini = 0.0\nsamples = 813\nvalue = [0, 813]"] ;
13 -> 14 ;
15 [label="average_montly_hours <= 150.5\ngini = 0.006\nsamples = 358\nvalue = [1, 357]"] ;
13 -> 15 ;
16 [label="gini = 0.0\nsamples = 234\nvalue = [0, 234]"] ;
15 -> 16 ;
17 [label="average_montly_hours <= 151.5\ngini = 0.016\nsamples = 124\nvalue = [1, 123]"] ;
15 -> 17 ;
18 [label="satisfaction_level <= 0.415\ngini = 0.198\nsamples = 9\nvalue = [1, 8]"] ;
17 -> 18 ;
19 [label="gini = 0.0\nsamples = 8\nvalue = [0, 8]"] ;
18 -> 19 ;
20 [label="gini = 0.0\nsamples = 1\nvalue = [1, 0]"] ;
18 -> 20 ;
21 [label="gini = 0.0\nsamples = 115\nvalue = [0, 115]"] ;
17 -> 21 ;
22 [label="last_evaluation <= 0.455\ngini = 0.142\nsamples = 39\nvalue = [3, 36]"] ;
12 -> 22 ;
23 [label="gini = 0.0\nsamples = 1\nvalue = [1, 0]"] ;
22 -> 23 ;
24 [label="sales_IT <= 0.5\ngini = 0.1\nsamples = 38\nvalue = [2, 36]"] ;
22 -> 24 ;
25 [label="gini = 0.0\nsamples = 34\nvalue = [0, 34]"] ;
24 -> 25 ;
26 [label="satisfaction_level <= 0.385\ngini = 0.5\nsamples = 4\nvalue = [2, 2]"] ;
24 -> 26 ;
27 [label="gini = 0.0\nsamples = 2\nvalue = [2, 0]"] ;
26 -> 27 ;
28 [label="gini = 0.0\nsamples = 2\nvalue = [0, 2]"] ;
26 -> 28 ;
29 [label="average_montly_hours <= 234.0\ngini = 0.388\nsamples = 19\nvalue = [14, 5]"] ;
7 -> 29 ;
30 [label="gini = 0.0\nsamples = 13\nvalue = [13, 0]"] ;
29 -> 30 ;
31 [label="average_montly_hours <= 266.0\ngini = 0.278\nsamples = 6\nvalue = [1, 5]"] ;
29 -> 31 ;
32 [label="gini = 0.0\nsamples = 5\nvalue = [0, 5]"] ;
31 -> 32 ;
33 [label="gini = 0.0\nsamples = 1\nvalue = [1, 0]"] ;
31 -> 33 ;
34 [label="average_montly_hours <= 280.0\ngini = 0.088\nsamples = 108\nvalue = [103, 5]"] ;
2 -> 34 ;
35 [label="sales_technical <= 0.5\ngini = 0.056\nsamples = 105\nvalue = [102, 3]"] ;
34 -> 35 ;
36 [label="gini = 0.0\nsamples = 87\nvalue = [87, 0]"] ;
35 -> 36 ;
37 [label="average_montly_hours <= 157.0\ngini = 0.278\nsamples = 18\nvalue = [15, 3]"] ;
35 -> 37 ;
38 [label="average_montly_hours <= 145.0\ngini = 0.49\nsamples = 7\nvalue = [4, 3]"] ;
37 -> 38 ;
39 [label="gini = 0.0\nsamples = 4\nvalue = [4, 0]"] ;
38 -> 39 ;
40 [label="gini = 0.0\nsamples = 3\nvalue = [0, 3]"] ;
38 -> 40 ;
41 [label="gini = 0.0\nsamples = 11\nvalue = [11, 0]"] ;
37 -> 41 ;
42 [label="satisfaction_level <= 0.415\ngini = 0.444\nsamples = 3\nvalue = [1, 2]"] ;
34 -> 42 ;
43 [label="gini = 0.0\nsamples = 2\nvalue = [0, 2]"] ;
42 -> 43 ;
44 [label="gini = 0.0\nsamples = 1\nvalue = [1, 0]"] ;
42 -> 44 ;
45 [label="satisfaction_level <= 0.115\ngini = 0.487\nsamples = 1964\nvalue = [1143, 821]"] ;
1 -> 45 ;
46 [label="gini = 0.0\nsamples = 728\nvalue = [0, 728]"] ;
45 -> 46 ;
47 [label="number_project <= 6.5\ngini = 0.139\nsamples = 1236\nvalue = [1143, 93]"] ;
45 -> 47 ;
48 [label="average_montly_hours <= 289.0\ngini = 0.125\nsamples = 1225\nvalue = [1143, 82]"] ;
47 -> 48 ;
49 [label="last_evaluation <= 0.995\ngini = 0.111\nsamples = 1215\nvalue = [1143, 72]"] ;
48 -> 49 ;
50 [label="satisfaction_level <= 0.305\ngini = 0.104\nsamples = 1201\nvalue = [1135, 66]"] ;
49 -> 50 ;
51 [label="satisfaction_level <= 0.175\ngini = 0.068\nsamples = 742\nvalue = [716, 26]"] ;
50 -> 51 ;
52 [label="time_spend_company <= 3.5\ngini = 0.105\nsamples = 270\nvalue = [255, 15]"] ;
51 -> 52 ;
53 [label="last_evaluation <= 0.77\ngini = 0.216\nsamples = 65\nvalue = [57, 8]"] ;
52 -> 53 ;
54 [label="sales_hr <= 0.5\ngini = 0.124\nsamples = 45\nvalue = [42, 3]"] ;
53 -> 54 ;
55 [label="satisfaction_level <= 0.145\ngini = 0.089\nsamples = 43\nvalue = [41, 2]"] ;
54 -> 55 ;
56 [label="satisfaction_level <= 0.135\ngini = 0.32\nsamples = 10\nvalue = [8, 2]"] ;
55 -> 56 ;
57 [label="gini = 0.0\nsamples = 7\nvalue = [7, 0]"] ;
56 -> 57 ;
58 [label="average_montly_hours <= 148.5\ngini = 0.444\nsamples = 3\nvalue = [1, 2]"] ;
56 -> 58 ;
59 [label="gini = 0.0\nsamples = 1\nvalue = [1, 0]"] ;
58 -> 59 ;
60 [label="gini = 0.0\nsamples = 2\nvalue = [0, 2]"] ;
58 -> 60 ;
61 [label="gini = 0.0\nsamples = 33\nvalue = [33, 0]"] ;
55 -> 61 ;
62 [label="satisfaction_level <= 0.145\ngini = 0.5\nsamples = 2\nvalue = [1, 1]"] ;
54 -> 62 ;
63 [label="gini = 0.0\nsamples = 1\nvalue = [1, 0]"] ;
62 -> 63 ;
64 [label="gini = 0.0\nsamples = 1\nvalue = [0, 1]"] ;
62 -> 64 ;
65 [label="satisfaction_level <= 0.165\ngini = 0.375\nsamples = 20\nvalue = [15, 5]"] ;
53 -> 65 ;
66 [label="average_montly_hours <= 154.0\ngini = 0.208\nsamples = 17\nvalue = [15, 2]"] ;
65 -> 66 ;
67 [label="last_evaluation <= 0.81\ngini = 0.48\nsamples = 5\nvalue = [3, 2]"] ;
66 -> 67 ;
68 [label="Work_accident <= 0.5\ngini = 0.444\nsamples = 3\nvalue = [1, 2]"] ;
67 -> 68 ;
69 [label="gini = 0.0\nsamples = 2\nvalue = [0, 2]"] ;
68 -> 69 ;
70 [label="gini = 0.0\nsamples = 1\nvalue = [1, 0]"] ;
68 -> 70 ;
71 [label="gini = 0.0\nsamples = 2\nvalue = [2, 0]"] ;
67 -> 71 ;
72 [label="gini = 0.0\nsamples = 12\nvalue = [12, 0]"] ;
66 -> 72 ;
73 [label="gini = 0.0\nsamples = 3\nvalue = [0, 3]"] ;
65 -> 73 ;
74 [label="last_evaluation <= 0.755\ngini = 0.066\nsamples = 205\nvalue = [198, 7]"] ;
52 -> 74 ;
75 [label="last_evaluation <= 0.745\ngini = 0.121\nsamples = 108\nvalue = [101, 7]"] ;
74 -> 75 ;
76 [label="sales_accounting <= 0.5\ngini = 0.092\nsamples = 104\nvalue = [99, 5]"] ;
75 -> 76 ;
77 [label="average_montly_hours <= 159.0\ngini = 0.076\nsamples = 101\nvalue = [97, 4]"] ;
76 -> 77 ;
78 [label="average_montly_hours <= 156.0\ngini = 0.227\nsamples = 23\nvalue = [20, 3]"] ;
77 -> 78 ;
79 [label="salary_high <= 0.5\ngini = 0.091\nsamples = 21\nvalue = [20, 1]"] ;
78 -> 79 ;
80 [label="gini = 0.0\nsamples = 16\nvalue = [16, 0]"] ;
79 -> 80 ;
81 [label="sales_support <= 0.5\ngini = 0.32\nsamples = 5\nvalue = [4, 1]"] ;
79 -> 81 ;
82 [label="gini = 0.0\nsamples = 4\nvalue = [4, 0]"] ;
81 -> 82 ;
83 [label="gini = 0.0\nsamples = 1\nvalue = [0, 1]"] ;
81 -> 83 ;
84 [label="gini = 0.0\nsamples = 2\nvalue = [0, 2]"] ;
78 -> 84 ;
85 [label="satisfaction_level <= 0.165\ngini = 0.025\nsamples = 78\nvalue = [77, 1]"] ;
77 -> 85 ;
86 [label="gini = 0.0\nsamples = 64\nvalue = [64, 0]"] ;
85 -> 86 ;
87 [label="salary_medium <= 0.5\ngini = 0.133\nsamples = 14\nvalue = [13, 1]"] ;
85 -> 87 ;
88 [label="gini = 0.0\nsamples = 9\nvalue = [9, 0]"] ;
87 -> 88 ;
89 [label="last_evaluation <= 0.555\ngini = 0.32\nsamples = 5\nvalue = [4, 1]"] ;
87 -> 89 ;
90 [label="gini = 0.0\nsamples = 1\nvalue = [0, 1]"] ;
89 -> 90 ;
91 [label="gini = 0.0\nsamples = 4\nvalue = [4, 0]"] ;
89 -> 91 ;
92 [label="last_evaluation <= 0.655\ngini = 0.444\nsamples = 3\nvalue = [2, 1]"] ;
76 -> 92 ;
93 [label="gini = 0.0\nsamples = 1\nvalue = [0, 1]"] ;
92 -> 93 ;
94 [label="gini = 0.0\nsamples = 2\nvalue = [2, 0]"] ;
92 -> 94 ;
95 [label="sales_technical <= 0.5\ngini = 0.5\nsamples = 4\nvalue = [2, 2]"] ;
75 -> 95 ;
96 [label="sales_sales <= 0.5\ngini = 0.444\nsamples = 3\nvalue = [2, 1]"] ;
95 -> 96 ;
97 [label="gini = 0.0\nsamples = 2\nvalue = [2, 0]"] ;
96 -> 97 ;
98 [label="gini = 0.0\nsamples = 1\nvalue = [0, 1]"] ;
96 -> 98 ;
99 [label="gini = 0.0\nsamples = 1\nvalue = [0, 1]"] ;
95 -> 99 ;
100 [label="gini = 0.0\nsamples = 97\nvalue = [97, 0]"] ;
74 -> 100 ;
101 [label="last_evaluation <= 0.505\ngini = 0.046\nsamples = 472\nvalue = [461, 11]"] ;
51 -> 101 ;
102 [label="sales_RandD <= 0.5\ngini = 0.137\nsamples = 81\nvalue = [75, 6]"] ;
101 -> 102 ;
103 [label="average_montly_hours <= 212.0\ngini = 0.1\nsamples = 76\nvalue = [72, 4]"] ;
102 -> 103 ;
104 [label="gini = 0.0\nsamples = 49\nvalue = [49, 0]"] ;
103 -> 104 ;
105 [label="average_montly_hours <= 219.5\ngini = 0.252\nsamples = 27\nvalue = [23, 4]"] ;
103 -> 105 ;
106 [label="last_evaluation <= 0.465\ngini = 0.5\nsamples = 8\nvalue = [4, 4]"] ;
105 -> 106 ;
107 [label="last_evaluation <= 0.44\ngini = 0.32\nsamples = 5\nvalue = [1, 4]"] ;
106 -> 107 ;
108 [label="gini = 0.0\nsamples = 1\nvalue = [1, 0]"] ;
107 -> 108 ;
109 [label="gini = 0.0\nsamples = 4\nvalue = [0, 4]"] ;
107 -> 109 ;
110 [label="gini = 0.0\nsamples = 3\nvalue = [3, 0]"] ;
106 -> 110 ;
111 [label="gini = 0.0\nsamples = 19\nvalue = [19, 0]"] ;
105 -> 111 ;
112 [label="time_spend_company <= 5.5\ngini = 0.48\nsamples = 5\nvalue = [3, 2]"] ;
102 -> 112 ;
113 [label="gini = 0.0\nsamples = 3\nvalue = [3, 0]"] ;
112 -> 113 ;
114 [label="gini = 0.0\nsamples = 2\nvalue = [0, 2]"] ;
112 -> 114 ;
115 [label="last_evaluation <= 0.985\ngini = 0.025\nsamples = 391\nvalue = [386, 5]"] ;
101 -> 115 ;
116 [label="average_montly_hours <= 280.5\ngini = 0.021\nsamples = 382\nvalue = [378, 4]"] ;
115 -> 116 ;
117 [label="satisfaction_level <= 0.295\ngini = 0.016\nsamples = 369\nvalue = [366, 3]"] ;
116 -> 117 ;
118 [label="average_montly_hours <= 168.5\ngini = 0.011\nsamples = 355\nvalue = [353, 2]"] ;
117 -> 118 ;
119 [label="average_montly_hours <= 167.5\ngini = 0.034\nsamples = 116\nvalue = [114, 2]"] ;
118 -> 119 ;
120 [label="sales_technical <= 0.5\ngini = 0.018\nsamples = 113\nvalue = [112, 1]"] ;
119 -> 120 ;
121 [label="gini = 0.0\nsamples = 96\nvalue = [96, 0]"] ;
120 -> 121 ;
122 [label="last_evaluation <= 0.875\ngini = 0.111\nsamples = 17\nvalue = [16, 1]"] ;
120 -> 122 ;
123 [label="gini = 0.0\nsamples = 14\nvalue = [14, 0]"] ;
122 -> 123 ;
124 [label="number_project <= 5.0\ngini = 0.444\nsamples = 3\nvalue = [2, 1]"] ;
122 -> 124 ;
125 [label="gini = 0.0\nsamples = 2\nvalue = [2, 0]"] ;
124 -> 125 ;
126 [label="gini = 0.0\nsamples = 1\nvalue = [0, 1]"] ;
124 -> 126 ;
127 [label="number_project <= 4.0\ngini = 0.444\nsamples = 3\nvalue = [2, 1]"] ;
119 -> 127 ;
128 [label="gini = 0.0\nsamples = 2\nvalue = [2, 0]"] ;
127 -> 128 ;
129 [label="gini = 0.0\nsamples = 1\nvalue = [0, 1]"] ;
127 -> 129 ;
130 [label="gini = 0.0\nsamples = 239\nvalue = [239, 0]"] ;
118 -> 130 ;
131 [label="sales_RandD <= 0.5\ngini = 0.133\nsamples = 14\nvalue = [13, 1]"] ;
117 -> 131 ;
132 [label="gini = 0.0\nsamples = 13\nvalue = [13, 0]"] ;
131 -> 132 ;
133 [label="gini = 0.0\nsamples = 1\nvalue = [0, 1]"] ;
131 -> 133 ;
134 [label="satisfaction_level <= 0.205\ngini = 0.142\nsamples = 13\nvalue = [12, 1]"] ;
116 -> 134 ;
135 [label="satisfaction_level <= 0.19\ngini = 0.375\nsamples = 4\nvalue = [3, 1]"] ;
134 -> 135 ;
136 [label="gini = 0.0\nsamples = 3\nvalue = [3, 0]"] ;
135 -> 136 ;
137 [label="gini = 0.0\nsamples = 1\nvalue = [0, 1]"] ;
135 -> 137 ;
138 [label="gini = 0.0\nsamples = 9\nvalue = [9, 0]"] ;
134 -> 138 ;
139 [label="average_montly_hours <= 194.0\ngini = 0.198\nsamples = 9\nvalue = [8, 1]"] ;
115 -> 139 ;
140 [label="gini = 0.0\nsamples = 7\nvalue = [7, 0]"] ;
139 -> 140 ;
141 [label="Work_accident <= 0.5\ngini = 0.5\nsamples = 2\nvalue = [1, 1]"] ;
139 -> 141 ;
142 [label="gini = 0.0\nsamples = 1\nvalue = [1, 0]"] ;
141 -> 142 ;
143 [label="gini = 0.0\nsamples = 1\nvalue = [0, 1]"] ;
141 -> 143 ;
144 [label="satisfaction_level <= 0.315\ngini = 0.159\nsamples = 459\nvalue = [419, 40]"] ;
50 -> 144 ;
145 [label="number_project <= 3.5\ngini = 0.408\nsamples = 35\nvalue = [25, 10]"] ;
144 -> 145 ;
146 [label="gini = 0.0\nsamples = 9\nvalue = [9, 0]"] ;
145 -> 146 ;
147 [label="Work_accident <= 0.5\ngini = 0.473\nsamples = 26\nvalue = [16, 10]"] ;
145 -> 147 ;
148 [label="average_montly_hours <= 233.5\ngini = 0.5\nsamples = 20\nvalue = [10, 10]"] ;
147 -> 148 ;
149 [label="average_montly_hours <= 190.5\ngini = 0.469\nsamples = 16\nvalue = [10, 6]"] ;
148 -> 149 ;
150 [label="average_montly_hours <= 120.0\ngini = 0.444\nsamples = 9\nvalue = [3, 6]"] ;
149 -> 150 ;
151 [label="gini = 0.0\nsamples = 3\nvalue = [3, 0]"] ;
150 -> 151 ;
152 [label="gini = 0.0\nsamples = 6\nvalue = [0, 6]"] ;
150 -> 152 ;
153 [label="gini = 0.0\nsamples = 7\nvalue = [7, 0]"] ;
149 -> 153 ;
154 [label="gini = 0.0\nsamples = 4\nvalue = [0, 4]"] ;
148 -> 154 ;
155 [label="gini = 0.0\nsamples = 6\nvalue = [6, 0]"] ;
147 -> 155 ;
156 [label="average_montly_hours <= 198.5\ngini = 0.131\nsamples = 424\nvalue = [394, 30]"] ;
144 -> 156 ;
157 [label="last_evaluation <= 0.855\ngini = 0.072\nsamples = 293\nvalue = [282, 11]"] ;
156 -> 157 ;
158 [label="salary_low <= 0.5\ngini = 0.038\nsamples = 259\nvalue = [254, 5]"] ;
157 -> 158 ;
159 [label="gini = 0.0\nsamples = 146\nvalue = [146, 0]"] ;
158 -> 159 ;
160 [label="satisfaction_level <= 0.345\ngini = 0.085\nsamples = 113\nvalue = [108, 5]"] ;
158 -> 160 ;
161 [label="sales_sales <= 0.5\ngini = 0.278\nsamples = 18\nvalue = [15, 3]"] ;
160 -> 161 ;
162 [label="gini = 0.0\nsamples = 13\nvalue = [13, 0]"] ;
161 -> 162 ;
163 [label="time_spend_company <= 2.5\ngini = 0.48\nsamples = 5\nvalue = [2, 3]"] ;
161 -> 163 ;
164 [label="gini = 0.0\nsamples = 3\nvalue = [0, 3]"] ;
163 -> 164 ;
165 [label="gini = 0.0\nsamples = 2\nvalue = [2, 0]"] ;
163 -> 165 ;
166 [label="sales_marketing <= 0.5\ngini = 0.041\nsamples = 95\nvalue = [93, 2]"] ;
160 -> 166 ;
167 [label="sales_product_mng <= 0.5\ngini = 0.022\nsamples = 92\nvalue = [91, 1]"] ;
166 -> 167 ;
168 [label="gini = 0.0\nsamples = 89\nvalue = [89, 0]"] ;
167 -> 168 ;
169 [label="number_project <= 5.0\ngini = 0.444\nsamples = 3\nvalue = [2, 1]"] ;
167 -> 169 ;
170 [label="gini = 0.0\nsamples = 2\nvalue = [2, 0]"] ;
169 -> 170 ;
171 [label="gini = 0.0\nsamples = 1\nvalue = [0, 1]"] ;
169 -> 171 ;
172 [label="average_montly_hours <= 141.5\ngini = 0.444\nsamples = 3\nvalue = [2, 1]"] ;
166 -> 172 ;
173 [label="gini = 0.0\nsamples = 1\nvalue = [0, 1]"] ;
172 -> 173 ;
174 [label="gini = 0.0\nsamples = 2\nvalue = [2, 0]"] ;
172 -> 174 ;
175 [label="time_spend_company <= 2.5\ngini = 0.291\nsamples = 34\nvalue = [28, 6]"] ;
157 -> 175 ;
176 [label="satisfaction_level <= 0.38\ngini = 0.375\nsamples = 4\nvalue = [1, 3]"] ;
175 -> 176 ;
177 [label="gini = 0.0\nsamples = 3\nvalue = [0, 3]"] ;
176 -> 177 ;
178 [label="gini = 0.0\nsamples = 1\nvalue = [1, 0]"] ;
176 -> 178 ;
179 [label="sales_technical <= 0.5\ngini = 0.18\nsamples = 30\nvalue = [27, 3]"] ;
175 -> 179 ;
180 [label="gini = 0.0\nsamples = 22\nvalue = [22, 0]"] ;
179 -> 180 ;
181 [label="last_evaluation <= 0.9\ngini = 0.469\nsamples = 8\nvalue = [5, 3]"] ;
179 -> 181 ;
182 [label="average_montly_hours <= 166.5\ngini = 0.375\nsamples = 4\nvalue = [1, 3]"] ;
181 -> 182 ;
183 [label="gini = 0.0\nsamples = 3\nvalue = [0, 3]"] ;
182 -> 183 ;
184 [label="gini = 0.0\nsamples = 1\nvalue = [1, 0]"] ;
182 -> 184 ;
185 [label="gini = 0.0\nsamples = 4\nvalue = [4, 0]"] ;
181 -> 185 ;
186 [label="average_montly_hours <= 199.5\ngini = 0.248\nsamples = 131\nvalue = [112, 19]"] ;
156 -> 186 ;
187 [label="time_spend_company <= 3.5\ngini = 0.375\nsamples = 4\nvalue = [1, 3]"] ;
186 -> 187 ;
188 [label="gini = 0.0\nsamples = 1\nvalue = [1, 0]"] ;
187 -> 188 ;
189 [label="gini = 0.0\nsamples = 3\nvalue = [0, 3]"] ;
187 -> 189 ;
190 [label="sales_management <= 0.5\ngini = 0.22\nsamples = 127\nvalue = [111, 16]"] ;
186 -> 190 ;
191 [label="last_evaluation <= 0.615\ngini = 0.19\nsamples = 122\nvalue = [109, 13]"] ;
190 -> 191 ;
192 [label="gini = 0.0\nsamples = 42\nvalue = [42, 0]"] ;
191 -> 192 ;
193 [label="last_evaluation <= 0.655\ngini = 0.272\nsamples = 80\nvalue = [67, 13]"] ;
191 -> 193 ;
194 [label="satisfaction_level <= 0.425\ngini = 0.494\nsamples = 9\nvalue = [5, 4]"] ;
193 -> 194 ;
195 [label="gini = 0.0\nsamples = 5\nvalue = [5, 0]"] ;
194 -> 195 ;
196 [label="gini = 0.0\nsamples = 4\nvalue = [0, 4]"] ;
194 -> 196 ;
197 [label="last_evaluation <= 0.98\ngini = 0.221\nsamples = 71\nvalue = [62, 9]"] ;
193 -> 197 ;
198 [label="sales_support <= 0.5\ngini = 0.187\nsamples = 67\nvalue = [60, 7]"] ;
197 -> 198 ;
199 [label="average_montly_hours <= 275.5\ngini = 0.131\nsamples = 57\nvalue = [53, 4]"] ;
198 -> 199 ;
200 [label="satisfaction_level <= 0.445\ngini = 0.075\nsamples = 51\nvalue = [49, 2]"] ;
199 -> 200 ;
201 [label="average_montly_hours <= 205.5\ngini = 0.04\nsamples = 49\nvalue = [48, 1]"] ;
200 -> 201 ;
202 [label="sales_marketing <= 0.5\ngini = 0.32\nsamples = 5\nvalue = [4, 1]"] ;
201 -> 202 ;
203 [label="gini = 0.0\nsamples = 4\nvalue = [4, 0]"] ;
202 -> 203 ;
204 [label="gini = 0.0\nsamples = 1\nvalue = [0, 1]"] ;
202 -> 204 ;
205 [label="gini = 0.0\nsamples = 44\nvalue = [44, 0]"] ;
201 -> 205 ;
206 [label="number_project <= 4.5\ngini = 0.5\nsamples = 2\nvalue = [1, 1]"] ;
200 -> 206 ;
207 [label="gini = 0.0\nsamples = 1\nvalue = [0, 1]"] ;
206 -> 207 ;
208 [label="gini = 0.0\nsamples = 1\nvalue = [1, 0]"] ;
206 -> 208 ;
209 [label="time_spend_company <= 2.5\ngini = 0.444\nsamples = 6\nvalue = [4, 2]"] ;
199 -> 209 ;
210 [label="last_evaluation <= 0.835\ngini = 0.444\nsamples = 3\nvalue = [1, 2]"] ;
209 -> 210 ;
211 [label="gini = 0.0\nsamples = 2\nvalue = [0, 2]"] ;
210 -> 211 ;
212 [label="gini = 0.0\nsamples = 1\nvalue = [1, 0]"] ;
210 -> 212 ;
213 [label="gini = 0.0\nsamples = 3\nvalue = [3, 0]"] ;
209 -> 213 ;
214 [label="average_montly_hours <= 224.0\ngini = 0.42\nsamples = 10\nvalue = [7, 3]"] ;
198 -> 214 ;
215 [label="gini = 0.0\nsamples = 3\nvalue = [0, 3]"] ;
214 -> 215 ;
216 [label="gini = 0.0\nsamples = 7\nvalue = [7, 0]"] ;
214 -> 216 ;
217 [label="satisfaction_level <= 0.37\ngini = 0.5\nsamples = 4\nvalue = [2, 2]"] ;
197 -> 217 ;
218 [label="gini = 0.0\nsamples = 2\nvalue = [0, 2]"] ;
217 -> 218 ;
219 [label="gini = 0.0\nsamples = 2\nvalue = [2, 0]"] ;
217 -> 219 ;
220 [label="average_montly_hours <= 235.0\ngini = 0.48\nsamples = 5\nvalue = [2, 3]"] ;
190 -> 220 ;
221 [label="gini = 0.0\nsamples = 2\nvalue = [0, 2]"] ;
220 -> 221 ;
222 [label="average_montly_hours <= 257.5\ngini = 0.444\nsamples = 3\nvalue = [2, 1]"] ;
220 -> 222 ;
223 [label="gini = 0.0\nsamples = 2\nvalue = [2, 0]"] ;
222 -> 223 ;
224 [label="gini = 0.0\nsamples = 1\nvalue = [0, 1]"] ;
222 -> 224 ;
225 [label="average_montly_hours <= 190.0\ngini = 0.49\nsamples = 14\nvalue = [8, 6]"] ;
49 -> 225 ;
226 [label="satisfaction_level <= 0.365\ngini = 0.245\nsamples = 7\nvalue = [6, 1]"] ;
225 -> 226 ;
227 [label="gini = 0.0\nsamples = 6\nvalue = [6, 0]"] ;
226 -> 227 ;
228 [label="gini = 0.0\nsamples = 1\nvalue = [0, 1]"] ;
226 -> 228 ;
229 [label="number_project <= 4.5\ngini = 0.408\nsamples = 7\nvalue = [2, 5]"] ;
225 -> 229 ;
230 [label="gini = 0.0\nsamples = 5\nvalue = [0, 5]"] ;
229 -> 230 ;
231 [label="gini = 0.0\nsamples = 2\nvalue = [2, 0]"] ;
229 -> 231 ;
232 [label="gini = 0.0\nsamples = 10\nvalue = [0, 10]"] ;
48 -> 232 ;
233 [label="gini = 0.0\nsamples = 11\nvalue = [0, 11]"] ;
47 -> 233 ;
234 [label="time_spend_company <= 4.5\ngini = 0.173\nsamples = 8645\nvalue = [7819, 826]"] ;
0 -> 234 [labeldistance=2.5, labelangle=-45, headlabel="False"] ;
235 [label="average_montly_hours <= 290.5\ngini = 0.029\nsamples = 7053\nvalue = [6951, 102]"] ;
234 -> 235 ;
236 [label="number_project <= 6.5\ngini = 0.027\nsamples = 7049\nvalue = [6951, 98]"] ;
235 -> 236 ;
237 [label="time_spend_company <= 3.5\ngini = 0.026\nsamples = 7045\nvalue = [6951, 94]"] ;
236 -> 237 ;
238 [label="number_project <= 5.5\ngini = 0.017\nsamples = 5943\nvalue = [5892, 51]"] ;
237 -> 238 ;
239 [label="number_project <= 2.5\ngini = 0.015\nsamples = 5866\nvalue = [5822, 44]"] ;
238 -> 239 ;
240 [label="average_montly_hours <= 196.5\ngini = 0.085\nsamples = 338\nvalue = [323, 15]"] ;
239 -> 240 ;
241 [label="last_evaluation <= 0.895\ngini = 0.011\nsamples = 177\nvalue = [176, 1]"] ;
240 -> 241 ;
242 [label="gini = 0.0\nsamples = 156\nvalue = [156, 0]"] ;
241 -> 242 ;
243 [label="last_evaluation <= 0.905\ngini = 0.091\nsamples = 21\nvalue = [20, 1]"] ;
241 -> 243 ;
244 [label="average_montly_hours <= 161.5\ngini = 0.375\nsamples = 4\nvalue = [3, 1]"] ;
243 -> 244 ;
245 [label="gini = 0.0\nsamples = 3\nvalue = [3, 0]"] ;
244 -> 245 ;
246 [label="gini = 0.0\nsamples = 1\nvalue = [0, 1]"] ;
244 -> 246 ;
247 [label="gini = 0.0\nsamples = 17\nvalue = [17, 0]"] ;
243 -> 247 ;
248 [label="satisfaction_level <= 0.485\ngini = 0.159\nsamples = 161\nvalue = [147, 14]"] ;
240 -> 248 ;
249 [label="gini = 0.0\nsamples = 3\nvalue = [0, 3]"] ;
248 -> 249 ;
250 [label="last_evaluation <= 0.48\ngini = 0.13\nsamples = 158\nvalue = [147, 11]"] ;
248 -> 250 ;
251 [label="last_evaluation <= 0.465\ngini = 0.397\nsamples = 11\nvalue = [8, 3]"] ;
250 -> 251 ;
252 [label="gini = 0.0\nsamples = 8\nvalue = [8, 0]"] ;
251 -> 252 ;
253 [label="gini = 0.0\nsamples = 3\nvalue = [0, 3]"] ;
251 -> 253 ;
254 [label="last_evaluation <= 0.995\ngini = 0.103\nsamples = 147\nvalue = [139, 8]"] ;
250 -> 254 ;
255 [label="sales_support <= 0.5\ngini = 0.092\nsamples = 145\nvalue = [138, 7]"] ;
254 -> 255 ;
256 [label="average_montly_hours <= 254.5\ngini = 0.061\nsamples = 127\nvalue = [123, 4]"] ;
255 -> 256 ;
257 [label="gini = 0.0\nsamples = 88\nvalue = [88, 0]"] ;
256 -> 257 ;
258 [label="average_montly_hours <= 256.0\ngini = 0.184\nsamples = 39\nvalue = [35, 4]"] ;
256 -> 258 ;
259 [label="satisfaction_level <= 0.715\ngini = 0.375\nsamples = 4\nvalue = [1, 3]"] ;
258 -> 259 ;
260 [label="gini = 0.0\nsamples = 3\nvalue = [0, 3]"] ;
259 -> 260 ;
261 [label="gini = 0.0\nsamples = 1\nvalue = [1, 0]"] ;
259 -> 261 ;
262 [label="sales_IT <= 0.5\ngini = 0.056\nsamples = 35\nvalue = [34, 1]"] ;
258 -> 262 ;
263 [label="gini = 0.0\nsamples = 33\nvalue = [33, 0]"] ;
262 -> 263 ;
264 [label="last_evaluation <= 0.925\ngini = 0.5\nsamples = 2\nvalue = [1, 1]"] ;
262 -> 264 ;
265 [label="gini = 0.0\nsamples = 1\nvalue = [1, 0]"] ;
264 -> 265 ;
266 [label="gini = 0.0\nsamples = 1\nvalue = [0, 1]"] ;
264 -> 266 ;
267 [label="average_montly_hours <= 211.5\ngini = 0.278\nsamples = 18\nvalue = [15, 3]"] ;
255 -> 267 ;
268 [label="salary_low <= 0.5\ngini = 0.375\nsamples = 4\nvalue = [1, 3]"] ;
267 -> 268 ;
269 [label="gini = 0.0\nsamples = 1\nvalue = [1, 0]"] ;
268 -> 269 ;
270 [label="gini = 0.0\nsamples = 3\nvalue = [0, 3]"] ;
268 -> 270 ;
271 [label="gini = 0.0\nsamples = 14\nvalue = [14, 0]"] ;
267 -> 271 ;
272 [label="salary_medium <= 0.5\ngini = 0.5\nsamples = 2\nvalue = [1, 1]"] ;
254 -> 272 ;
273 [label="gini = 0.0\nsamples = 1\nvalue = [0, 1]"] ;
272 -> 273 ;
274 [label="gini = 0.0\nsamples = 1\nvalue = [1, 0]"] ;
272 -> 274 ;
275 [label="satisfaction_level <= 0.475\ngini = 0.01\nsamples = 5528\nvalue = [5499, 29]"] ;
239 -> 275 ;
276 [label="sales_RandD <= 0.5\ngini = 0.153\nsamples = 12\nvalue = [11, 1]"] ;
275 -> 276 ;
277 [label="gini = 0.0\nsamples = 11\nvalue = [11, 0]"] ;
276 -> 277 ;
278 [label="gini = 0.0\nsamples = 1\nvalue = [0, 1]"] ;
276 -> 278 ;
279 [label="satisfaction_level <= 0.585\ngini = 0.01\nsamples = 5516\nvalue = [5488, 28]"] ;
275 -> 279 ;
280 [label="sales_hr <= 0.5\ngini = 0.023\nsamples = 1136\nvalue = [1123, 13]"] ;
279 -> 280 ;
281 [label="sales_sales <= 0.5\ngini = 0.018\nsamples = 1083\nvalue = [1073, 10]"] ;
280 -> 281 ;
282 [label="average_montly_hours <= 139.0\ngini = 0.008\nsamples = 781\nvalue = [778, 3]"] ;
281 -> 282 ;
283 [label="sales_accounting <= 0.5\ngini = 0.069\nsamples = 56\nvalue = [54, 2]"] ;
282 -> 283 ;
284 [label="sales_technical <= 0.5\ngini = 0.037\nsamples = 53\nvalue = [52, 1]"] ;
283 -> 284 ;
285 [label="gini = 0.0\nsamples = 39\nvalue = [39, 0]"] ;
284 -> 285 ;
286 [label="satisfaction_level <= 0.515\ngini = 0.133\nsamples = 14\nvalue = [13, 1]"] ;
284 -> 286 ;
287 [label="number_project <= 4.5\ngini = 0.278\nsamples = 6\nvalue = [5, 1]"] ;
286 -> 287 ;
288 [label="gini = 0.0\nsamples = 1\nvalue = [0, 1]"] ;
287 -> 288 ;
289 [label="gini = 0.0\nsamples = 5\nvalue = [5, 0]"] ;
287 -> 289 ;
290 [label="gini = 0.0\nsamples = 8\nvalue = [8, 0]"] ;
286 -> 290 ;
291 [label="average_montly_hours <= 136.5\ngini = 0.444\nsamples = 3\nvalue = [2, 1]"] ;
283 -> 291 ;
292 [label="gini = 0.0\nsamples = 2\nvalue = [2, 0]"] ;
291 -> 292 ;
293 [label="gini = 0.0\nsamples = 1\nvalue = [0, 1]"] ;
291 -> 293 ;
294 [label="sales_IT <= 0.5\ngini = 0.003\nsamples = 725\nvalue = [724, 1]"] ;
282 -> 294 ;
295 [label="gini = 0.0\nsamples = 646\nvalue = [646, 0]"] ;
294 -> 295 ;
296 [label="last_evaluation <= 0.855\ngini = 0.025\nsamples = 79\nvalue = [78, 1]"] ;
294 -> 296 ;
297 [label="gini = 0.0\nsamples = 65\nvalue = [65, 0]"] ;
296 -> 297 ;
298 [label="last_evaluation <= 0.865\ngini = 0.133\nsamples = 14\nvalue = [13, 1]"] ;
296 -> 298 ;
299 [label="gini = 0.0\nsamples = 1\nvalue = [0, 1]"] ;
298 -> 299 ;
300 [label="gini = 0.0\nsamples = 13\nvalue = [13, 0]"] ;
298 -> 300 ;
301 [label="satisfaction_level <= 0.535\ngini = 0.045\nsamples = 302\nvalue = [295, 7]"] ;
281 -> 301 ;
302 [label="satisfaction_level <= 0.485\ngini = 0.012\nsamples = 168\nvalue = [167, 1]"] ;
301 -> 302 ;
303 [label="average_montly_hours <= 233.0\ngini = 0.142\nsamples = 13\nvalue = [12, 1]"] ;
302 -> 303 ;
304 [label="gini = 0.0\nsamples = 12\nvalue = [12, 0]"] ;
303 -> 304 ;
305 [label="gini = 0.0\nsamples = 1\nvalue = [0, 1]"] ;
303 -> 305 ;
306 [label="gini = 0.0\nsamples = 155\nvalue = [155, 0]"] ;
302 -> 306 ;
307 [label="satisfaction_level <= 0.545\ngini = 0.086\nsamples = 134\nvalue = [128, 6]"] ;
301 -> 307 ;
308 [label="average_montly_hours <= 169.0\ngini = 0.269\nsamples = 25\nvalue = [21, 4]"] ;
307 -> 308 ;
309 [label="average_montly_hours <= 163.5\ngini = 0.49\nsamples = 7\nvalue = [4, 3]"] ;
308 -> 309 ;
310 [label="gini = 0.0\nsamples = 4\nvalue = [4, 0]"] ;
309 -> 310 ;
311 [label="gini = 0.0\nsamples = 3\nvalue = [0, 3]"] ;
309 -> 311 ;
312 [label="average_montly_hours <= 259.5\ngini = 0.105\nsamples = 18\nvalue = [17, 1]"] ;
308 -> 312 ;
313 [label="gini = 0.0\nsamples = 16\nvalue = [16, 0]"] ;
312 -> 313 ;
314 [label="last_evaluation <= 0.52\ngini = 0.5\nsamples = 2\nvalue = [1, 1]"] ;
312 -> 314 ;
315 [label="gini = 0.0\nsamples = 1\nvalue = [1, 0]"] ;
314 -> 315 ;
316 [label="gini = 0.0\nsamples = 1\nvalue = [0, 1]"] ;
314 -> 316 ;
317 [label="salary_medium <= 0.5\ngini = 0.036\nsamples = 109\nvalue = [107, 2]"] ;
307 -> 317 ;
318 [label="gini = 0.0\nsamples = 64\nvalue = [64, 0]"] ;
317 -> 318 ;
319 [label="time_spend_company <= 2.5\ngini = 0.085\nsamples = 45\nvalue = [43, 2]"] ;
317 -> 319 ;
320 [label="average_montly_hours <= 217.5\ngini = 0.18\nsamples = 20\nvalue = [18, 2]"] ;
319 -> 320 ;
321 [label="gini = 0.0\nsamples = 12\nvalue = [12, 0]"] ;
320 -> 321 ;
322 [label="average_montly_hours <= 237.0\ngini = 0.375\nsamples = 8\nvalue = [6, 2]"] ;
320 -> 322 ;
323 [label="satisfaction_level <= 0.555\ngini = 0.444\nsamples = 3\nvalue = [1, 2]"] ;
322 -> 323 ;
324 [label="gini = 0.0\nsamples = 1\nvalue = [1, 0]"] ;
323 -> 324 ;
325 [label="gini = 0.0\nsamples = 2\nvalue = [0, 2]"] ;
323 -> 325 ;
326 [label="gini = 0.0\nsamples = 5\nvalue = [5, 0]"] ;
322 -> 326 ;
327 [label="gini = 0.0\nsamples = 25\nvalue = [25, 0]"] ;
319 -> 327 ;
328 [label="satisfaction_level <= 0.575\ngini = 0.107\nsamples = 53\nvalue = [50, 3]"] ;
280 -> 328 ;
329 [label="gini = 0.0\nsamples = 45\nvalue = [45, 0]"] ;
328 -> 329 ;
330 [label="average_montly_hours <= 225.0\ngini = 0.469\nsamples = 8\nvalue = [5, 3]"] ;
328 -> 330 ;
331 [label="gini = 0.0\nsamples = 5\nvalue = [5, 0]"] ;
330 -> 331 ;
332 [label="gini = 0.0\nsamples = 3\nvalue = [0, 3]"] ;
330 -> 332 ;
333 [label="average_montly_hours <= 262.5\ngini = 0.007\nsamples = 4380\nvalue = [4365, 15]"] ;
279 -> 333 ;
334 [label="promotion_last_5years <= 0.5\ngini = 0.005\nsamples = 3985\nvalue = [3975, 10]"] ;
333 -> 334 ;
335 [label="last_evaluation <= 0.455\ngini = 0.004\nsamples = 3892\nvalue = [3884, 8]"] ;
334 -> 335 ;
336 [label="last_evaluation <= 0.445\ngini = 0.056\nsamples = 35\nvalue = [34, 1]"] ;
335 -> 336 ;
337 [label="gini = 0.0\nsamples = 30\nvalue = [30, 0]"] ;
336 -> 337 ;
338 [label="satisfaction_level <= 0.77\ngini = 0.32\nsamples = 5\nvalue = [4, 1]"] ;
336 -> 338 ;
339 [label="gini = 0.0\nsamples = 4\nvalue = [4, 0]"] ;
338 -> 339 ;
340 [label="gini = 0.0\nsamples = 1\nvalue = [0, 1]"] ;
338 -> 340 ;
341 [label="last_evaluation <= 0.995\ngini = 0.004\nsamples = 3857\nvalue = [3850, 7]"] ;
335 -> 341 ;
342 [label="number_project <= 3.5\ngini = 0.003\nsamples = 3817\nvalue = [3811, 6]"] ;
341 -> 342 ;
343 [label="sales_support <= 0.5\ngini = 0.008\nsamples = 1565\nvalue = [1559, 6]"] ;
342 -> 343 ;
344 [label="sales_sales <= 0.5\ngini = 0.005\nsamples = 1318\nvalue = [1315, 3]"] ;
343 -> 344 ;
345 [label="gini = 0.0\nsamples = 919\nvalue = [919, 0]"] ;
344 -> 345 ;
346 [label="salary_low <= 0.5\ngini = 0.015\nsamples = 399\nvalue = [396, 3]"] ;
344 -> 346 ;
347 [label="gini = 0.0\nsamples = 218\nvalue = [218, 0]"] ;
346 -> 347 ;
348 [label="satisfaction_level <= 0.785\ngini = 0.033\nsamples = 181\nvalue = [178, 3]"] ;
346 -> 348 ;
349 [label="satisfaction_level <= 0.775\ngini = 0.063\nsamples = 92\nvalue = [89, 3]"] ;
348 -> 349 ;
350 [label="gini = 0.0\nsamples = 85\nvalue = [85, 0]"] ;
349 -> 350 ;
351 [label="last_evaluation <= 0.655\ngini = 0.49\nsamples = 7\nvalue = [4, 3]"] ;
349 -> 351 ;
352 [label="gini = 0.0\nsamples = 3\nvalue = [3, 0]"] ;
351 -> 352 ;
353 [label="last_evaluation <= 0.84\ngini = 0.375\nsamples = 4\nvalue = [1, 3]"] ;
351 -> 353 ;
354 [label="gini = 0.0\nsamples = 3\nvalue = [0, 3]"] ;
353 -> 354 ;
355 [label="gini = 0.0\nsamples = 1\nvalue = [1, 0]"] ;
353 -> 355 ;
356 [label="gini = 0.0\nsamples = 89\nvalue = [89, 0]"] ;
348 -> 356 ;
357 [label="satisfaction_level <= 0.635\ngini = 0.024\nsamples = 247\nvalue = [244, 3]"] ;
343 -> 357 ;
358 [label="average_montly_hours <= 248.5\ngini = 0.142\nsamples = 26\nvalue = [24, 2]"] ;
357 -> 358 ;
359 [label="last_evaluation <= 0.92\ngini = 0.083\nsamples = 23\nvalue = [22, 1]"] ;
358 -> 359 ;
360 [label="gini = 0.0\nsamples = 18\nvalue = [18, 0]"] ;
359 -> 360 ;
361 [label="satisfaction_level <= 0.62\ngini = 0.32\nsamples = 5\nvalue = [4, 1]"] ;
359 -> 361 ;
362 [label="gini = 0.0\nsamples = 4\nvalue = [4, 0]"] ;
361 -> 362 ;
363 [label="gini = 0.0\nsamples = 1\nvalue = [0, 1]"] ;
361 -> 363 ;
364 [label="last_evaluation <= 0.82\ngini = 0.444\nsamples = 3\nvalue = [2, 1]"] ;
358 -> 364 ;
365 [label="gini = 0.0\nsamples = 2\nvalue = [2, 0]"] ;
364 -> 365 ;
366 [label="gini = 0.0\nsamples = 1\nvalue = [0, 1]"] ;
364 -> 366 ;
367 [label="average_montly_hours <= 149.5\ngini = 0.009\nsamples = 221\nvalue = [220, 1]"] ;
357 -> 367 ;
368 [label="average_montly_hours <= 148.5\ngini = 0.044\nsamples = 44\nvalue = [43, 1]"] ;
367 -> 368 ;
369 [label="gini = 0.0\nsamples = 33\nvalue = [33, 0]"] ;
368 -> 369 ;
370 [label="satisfaction_level <= 0.88\ngini = 0.165\nsamples = 11\nvalue = [10, 1]"] ;
368 -> 370 ;
371 [label="gini = 0.0\nsamples = 8\nvalue = [8, 0]"] ;
370 -> 371 ;
372 [label="time_spend_company <= 2.5\ngini = 0.444\nsamples = 3\nvalue = [2, 1]"] ;
370 -> 372 ;
373 [label="gini = 0.0\nsamples = 1\nvalue = [0, 1]"] ;
372 -> 373 ;
374 [label="gini = 0.0\nsamples = 2\nvalue = [2, 0]"] ;
372 -> 374 ;
375 [label="gini = 0.0\nsamples = 177\nvalue = [177, 0]"] ;
367 -> 375 ;
376 [label="gini = 0.0\nsamples = 2252\nvalue = [2252, 0]"] ;
342 -> 376 ;
377 [label="sales_sales <= 0.5\ngini = 0.049\nsamples = 40\nvalue = [39, 1]"] ;
341 -> 377 ;
378 [label="gini = 0.0\nsamples = 29\nvalue = [29, 0]"] ;
377 -> 378 ;
379 [label="satisfaction_level <= 0.715\ngini = 0.165\nsamples = 11\nvalue = [10, 1]"] ;
377 -> 379 ;
380 [label="gini = 0.0\nsamples = 8\nvalue = [8, 0]"] ;
379 -> 380 ;
381 [label="satisfaction_level <= 0.725\ngini = 0.444\nsamples = 3\nvalue = [2, 1]"] ;
379 -> 381 ;
382 [label="gini = 0.0\nsamples = 1\nvalue = [0, 1]"] ;
381 -> 382 ;
383 [label="gini = 0.0\nsamples = 2\nvalue = [2, 0]"] ;
381 -> 383 ;
384 [label="average_montly_hours <= 140.0\ngini = 0.042\nsamples = 93\nvalue = [91, 2]"] ;
334 -> 384 ;
385 [label="average_montly_hours <= 138.0\ngini = 0.32\nsamples = 10\nvalue = [8, 2]"] ;
384 -> 385 ;
386 [label="gini = 0.0\nsamples = 8\nvalue = [8, 0]"] ;
385 -> 386 ;
387 [label="gini = 0.0\nsamples = 2\nvalue = [0, 2]"] ;
385 -> 387 ;
388 [label="gini = 0.0\nsamples = 83\nvalue = [83, 0]"] ;
384 -> 388 ;
389 [label="satisfaction_level <= 0.795\ngini = 0.025\nsamples = 395\nvalue = [390, 5]"] ;
333 -> 389 ;
390 [label="gini = 0.0\nsamples = 218\nvalue = [218, 0]"] ;
389 -> 390 ;
391 [label="satisfaction_level <= 0.805\ngini = 0.055\nsamples = 177\nvalue = [172, 5]"] ;
389 -> 391 ;
392 [label="last_evaluation <= 0.755\ngini = 0.32\nsamples = 10\nvalue = [8, 2]"] ;
391 -> 392 ;
393 [label="last_evaluation <= 0.735\ngini = 0.5\nsamples = 4\nvalue = [2, 2]"] ;
392 -> 393 ;
394 [label="gini = 0.0\nsamples = 2\nvalue = [2, 0]"] ;
393 -> 394 ;
395 [label="gini = 0.0\nsamples = 2\nvalue = [0, 2]"] ;
393 -> 395 ;
396 [label="gini = 0.0\nsamples = 6\nvalue = [6, 0]"] ;
392 -> 396 ;
397 [label="number_project <= 4.5\ngini = 0.035\nsamples = 167\nvalue = [164, 3]"] ;
391 -> 397 ;
398 [label="gini = 0.0\nsamples = 133\nvalue = [133, 0]"] ;
397 -> 398 ;
399 [label="sales_management <= 0.5\ngini = 0.161\nsamples = 34\nvalue = [31, 3]"] ;
397 -> 399 ;
400 [label="average_montly_hours <= 263.5\ngini = 0.114\nsamples = 33\nvalue = [31, 2]"] ;
399 -> 400 ;
401 [label="time_spend_company <= 2.5\ngini = 0.5\nsamples = 4\nvalue = [2, 2]"] ;
400 -> 401 ;
402 [label="gini = 0.0\nsamples = 2\nvalue = [0, 2]"] ;
401 -> 402 ;
403 [label="gini = 0.0\nsamples = 2\nvalue = [2, 0]"] ;
401 -> 403 ;
404 [label="gini = 0.0\nsamples = 29\nvalue = [29, 0]"] ;
400 -> 404 ;
405 [label="gini = 0.0\nsamples = 1\nvalue = [0, 1]"] ;
399 -> 405 ;
406 [label="last_evaluation <= 0.895\ngini = 0.165\nsamples = 77\nvalue = [70, 7]"] ;
238 -> 406 ;
407 [label="satisfaction_level <= 0.495\ngini = 0.061\nsamples = 64\nvalue = [62, 2]"] ;
406 -> 407 ;
408 [label="sales_sales <= 0.5\ngini = 0.444\nsamples = 3\nvalue = [2, 1]"] ;
407 -> 408 ;
409 [label="gini = 0.0\nsamples = 1\nvalue = [0, 1]"] ;
408 -> 409 ;
410 [label="gini = 0.0\nsamples = 2\nvalue = [2, 0]"] ;
408 -> 410 ;
411 [label="sales_IT <= 0.5\ngini = 0.032\nsamples = 61\nvalue = [60, 1]"] ;
407 -> 411 ;
412 [label="gini = 0.0\nsamples = 56\nvalue = [56, 0]"] ;
411 -> 412 ;
413 [label="last_evaluation <= 0.675\ngini = 0.32\nsamples = 5\nvalue = [4, 1]"] ;
411 -> 413 ;
414 [label="gini = 0.0\nsamples = 4\nvalue = [4, 0]"] ;
413 -> 414 ;
415 [label="gini = 0.0\nsamples = 1\nvalue = [0, 1]"] ;
413 -> 415 ;
416 [label="salary_low <= 0.5\ngini = 0.473\nsamples = 13\nvalue = [8, 5]"] ;
406 -> 416 ;
417 [label="gini = 0.0\nsamples = 6\nvalue = [6, 0]"] ;
416 -> 417 ;
418 [label="satisfaction_level <= 0.88\ngini = 0.408\nsamples = 7\nvalue = [2, 5]"] ;
416 -> 418 ;
419 [label="gini = 0.0\nsamples = 5\nvalue = [0, 5]"] ;
418 -> 419 ;
420 [label="gini = 0.0\nsamples = 2\nvalue = [2, 0]"] ;
418 -> 420 ;
421 [label="satisfaction_level <= 0.475\ngini = 0.075\nsamples = 1102\nvalue = [1059, 43]"] ;
237 -> 421 ;
422 [label="average_montly_hours <= 247.5\ngini = 0.49\nsamples = 7\nvalue = [4, 3]"] ;
421 -> 422 ;
423 [label="gini = 0.0\nsamples = 4\nvalue = [4, 0]"] ;
422 -> 423 ;
424 [label="gini = 0.0\nsamples = 3\nvalue = [0, 3]"] ;
422 -> 424 ;
425 [label="sales_technical <= 0.5\ngini = 0.07\nsamples = 1095\nvalue = [1055, 40]"] ;
421 -> 425 ;
426 [label="sales_hr <= 0.5\ngini = 0.05\nsamples = 889\nvalue = [866, 23]"] ;
425 -> 426 ;
427 [label="salary_low <= 0.5\ngini = 0.04\nsamples = 833\nvalue = [816, 17]"] ;
426 -> 427 ;
428 [label="number_project <= 5.5\ngini = 0.013\nsamples = 448\nvalue = [445, 3]"] ;
427 -> 428 ;
429 [label="average_montly_hours <= 131.0\ngini = 0.005\nsamples = 423\nvalue = [422, 1]"] ;
428 -> 429 ;
430 [label="number_project <= 4.5\ngini = 0.105\nsamples = 18\nvalue = [17, 1]"] ;
429 -> 430 ;
431 [label="gini = 0.0\nsamples = 16\nvalue = [16, 0]"] ;
430 -> 431 ;
432 [label="sales_support <= 0.5\ngini = 0.5\nsamples = 2\nvalue = [1, 1]"] ;
430 -> 432 ;
433 [label="gini = 0.0\nsamples = 1\nvalue = [1, 0]"] ;
432 -> 433 ;
434 [label="gini = 0.0\nsamples = 1\nvalue = [0, 1]"] ;
432 -> 434 ;
435 [label="gini = 0.0\nsamples = 405\nvalue = [405, 0]"] ;
429 -> 435 ;
436 [label="sales_IT <= 0.5\ngini = 0.147\nsamples = 25\nvalue = [23, 2]"] ;
428 -> 436 ;
437 [label="gini = 0.0\nsamples = 20\nvalue = [20, 0]"] ;
436 -> 437 ;
438 [label="satisfaction_level <= 0.8\ngini = 0.48\nsamples = 5\nvalue = [3, 2]"] ;
436 -> 438 ;
439 [label="gini = 0.0\nsamples = 3\nvalue = [3, 0]"] ;
438 -> 439 ;
440 [label="gini = 0.0\nsamples = 2\nvalue = [0, 2]"] ;
438 -> 440 ;
441 [label="average_montly_hours <= 273.5\ngini = 0.07\nsamples = 385\nvalue = [371, 14]"] ;
427 -> 441 ;
442 [label="last_evaluation <= 0.755\ngini = 0.062\nsamples = 372\nvalue = [360, 12]"] ;
441 -> 442 ;
443 [label="number_project <= 4.5\ngini = 0.021\nsamples = 193\nvalue = [191, 2]"] ;
442 -> 443 ;
444 [label="gini = 0.0\nsamples = 152\nvalue = [152, 0]"] ;
443 -> 444 ;
445 [label="satisfaction_level <= 0.505\ngini = 0.093\nsamples = 41\nvalue = [39, 2]"] ;
443 -> 445 ;
446 [label="average_montly_hours <= 162.0\ngini = 0.5\nsamples = 2\nvalue = [1, 1]"] ;
445 -> 446 ;
447 [label="gini = 0.0\nsamples = 1\nvalue = [0, 1]"] ;
446 -> 447 ;
448 [label="gini = 0.0\nsamples = 1\nvalue = [1, 0]"] ;
446 -> 448 ;
449 [label="last_evaluation <= 0.465\ngini = 0.05\nsamples = 39\nvalue = [38, 1]"] ;
445 -> 449 ;
450 [label="satisfaction_level <= 0.625\ngini = 0.245\nsamples = 7\nvalue = [6, 1]"] ;
449 -> 450 ;
451 [label="gini = 0.0\nsamples = 1\nvalue = [0, 1]"] ;
450 -> 451 ;
452 [label="gini = 0.0\nsamples = 6\nvalue = [6, 0]"] ;
450 -> 452 ;
453 [label="gini = 0.0\nsamples = 32\nvalue = [32, 0]"] ;
449 -> 453 ;
454 [label="average_montly_hours <= 234.0\ngini = 0.105\nsamples = 179\nvalue = [169, 10]"] ;
442 -> 454 ;
455 [label="average_montly_hours <= 232.5\ngini = 0.146\nsamples = 126\nvalue = [116, 10]"] ;
454 -> 455 ;
456 [label="satisfaction_level <= 0.635\ngini = 0.109\nsamples = 121\nvalue = [114, 7]"] ;
455 -> 456 ;
457 [label="satisfaction_level <= 0.585\ngini = 0.239\nsamples = 36\nvalue = [31, 5]"] ;
456 -> 457 ;
458 [label="sales_marketing <= 0.5\ngini = 0.074\nsamples = 26\nvalue = [25, 1]"] ;
457 -> 458 ;
459 [label="gini = 0.0\nsamples = 24\nvalue = [24, 0]"] ;
458 -> 459 ;
460 [label="satisfaction_level <= 0.52\ngini = 0.5\nsamples = 2\nvalue = [1, 1]"] ;
458 -> 460 ;
461 [label="gini = 0.0\nsamples = 1\nvalue = [1, 0]"] ;
460 -> 461 ;
462 [label="gini = 0.0\nsamples = 1\nvalue = [0, 1]"] ;
460 -> 462 ;
463 [label="last_evaluation <= 0.795\ngini = 0.48\nsamples = 10\nvalue = [6, 4]"] ;
457 -> 463 ;
464 [label="gini = 0.0\nsamples = 2\nvalue = [0, 2]"] ;
463 -> 464 ;
465 [label="average_montly_hours <= 132.0\ngini = 0.375\nsamples = 8\nvalue = [6, 2]"] ;
463 -> 465 ;
466 [label="gini = 0.0\nsamples = 1\nvalue = [0, 1]"] ;
465 -> 466 ;
467 [label="sales_accounting <= 0.5\ngini = 0.245\nsamples = 7\nvalue = [6, 1]"] ;
465 -> 467 ;
468 [label="gini = 0.0\nsamples = 6\nvalue = [6, 0]"] ;
467 -> 468 ;
469 [label="gini = 0.0\nsamples = 1\nvalue = [0, 1]"] ;
467 -> 469 ;
470 [label="average_montly_hours <= 154.5\ngini = 0.046\nsamples = 85\nvalue = [83, 2]"] ;
456 -> 470 ;
471 [label="average_montly_hours <= 153.5\ngini = 0.147\nsamples = 25\nvalue = [23, 2]"] ;
470 -> 471 ;
472 [label="sales_product_mng <= 0.5\ngini = 0.08\nsamples = 24\nvalue = [23, 1]"] ;
471 -> 472 ;
473 [label="gini = 0.0\nsamples = 22\nvalue = [22, 0]"] ;
472 -> 473 ;
474 [label="last_evaluation <= 0.84\ngini = 0.5\nsamples = 2\nvalue = [1, 1]"] ;
472 -> 474 ;
475 [label="gini = 0.0\nsamples = 1\nvalue = [1, 0]"] ;
474 -> 475 ;
476 [label="gini = 0.0\nsamples = 1\nvalue = [0, 1]"] ;
474 -> 476 ;
477 [label="gini = 0.0\nsamples = 1\nvalue = [0, 1]"] ;
471 -> 477 ;
478 [label="gini = 0.0\nsamples = 60\nvalue = [60, 0]"] ;
470 -> 478 ;
479 [label="Work_accident <= 0.5\ngini = 0.48\nsamples = 5\nvalue = [2, 3]"] ;
455 -> 479 ;
480 [label="gini = 0.0\nsamples = 2\nvalue = [2, 0]"] ;
479 -> 480 ;
481 [label="gini = 0.0\nsamples = 3\nvalue = [0, 3]"] ;
479 -> 481 ;
482 [label="gini = 0.0\nsamples = 53\nvalue = [53, 0]"] ;
454 -> 482 ;
483 [label="average_montly_hours <= 275.0\ngini = 0.26\nsamples = 13\nvalue = [11, 2]"] ;
441 -> 483 ;
484 [label="gini = 0.0\nsamples = 2\nvalue = [0, 2]"] ;
483 -> 484 ;
485 [label="gini = 0.0\nsamples = 11\nvalue = [11, 0]"] ;
483 -> 485 ;
486 [label="last_evaluation <= 0.855\ngini = 0.191\nsamples = 56\nvalue = [50, 6]"] ;
426 -> 486 ;
487 [label="gini = 0.0\nsamples = 33\nvalue = [33, 0]"] ;
486 -> 487 ;
488 [label="last_evaluation <= 0.885\ngini = 0.386\nsamples = 23\nvalue = [17, 6]"] ;
486 -> 488 ;
489 [label="salary_medium <= 0.5\ngini = 0.444\nsamples = 9\nvalue = [3, 6]"] ;
488 -> 489 ;
490 [label="number_project <= 3.5\ngini = 0.375\nsamples = 4\nvalue = [3, 1]"] ;
489 -> 490 ;
491 [label="gini = 0.0\nsamples = 3\nvalue = [3, 0]"] ;
490 -> 491 ;
492 [label="gini = 0.0\nsamples = 1\nvalue = [0, 1]"] ;
490 -> 492 ;
493 [label="gini = 0.0\nsamples = 5\nvalue = [0, 5]"] ;
489 -> 493 ;
494 [label="gini = 0.0\nsamples = 14\nvalue = [14, 0]"] ;
488 -> 494 ;
495 [label="satisfaction_level <= 0.555\ngini = 0.151\nsamples = 206\nvalue = [189, 17]"] ;
425 -> 495 ;
496 [label="average_montly_hours <= 267.0\ngini = 0.383\nsamples = 31\nvalue = [23, 8]"] ;
495 -> 496 ;
497 [label="salary_medium <= 0.5\ngini = 0.328\nsamples = 29\nvalue = [23, 6]"] ;
496 -> 497 ;
498 [label="gini = 0.0\nsamples = 16\nvalue = [16, 0]"] ;
497 -> 498 ;
499 [label="last_evaluation <= 0.56\ngini = 0.497\nsamples = 13\nvalue = [7, 6]"] ;
497 -> 499 ;
500 [label="gini = 0.0\nsamples = 3\nvalue = [3, 0]"] ;
499 -> 500 ;
501 [label="last_evaluation <= 0.625\ngini = 0.48\nsamples = 10\nvalue = [4, 6]"] ;
499 -> 501 ;
502 [label="gini = 0.0\nsamples = 3\nvalue = [0, 3]"] ;
501 -> 502 ;
503 [label="number_project <= 4.5\ngini = 0.49\nsamples = 7\nvalue = [4, 3]"] ;
501 -> 503 ;
504 [label="gini = 0.0\nsamples = 4\nvalue = [4, 0]"] ;
503 -> 504 ;
505 [label="gini = 0.0\nsamples = 3\nvalue = [0, 3]"] ;
503 -> 505 ;
506 [label="gini = 0.0\nsamples = 2\nvalue = [0, 2]"] ;
496 -> 506 ;
507 [label="salary_low <= 0.5\ngini = 0.098\nsamples = 175\nvalue = [166, 9]"] ;
495 -> 507 ;
508 [label="gini = 0.0\nsamples = 92\nvalue = [92, 0]"] ;
507 -> 508 ;
509 [label="average_montly_hours <= 206.5\ngini = 0.193\nsamples = 83\nvalue = [74, 9]"] ;
507 -> 509 ;
510 [label="average_montly_hours <= 204.5\ngini = 0.269\nsamples = 50\nvalue = [42, 8]"] ;
509 -> 510 ;
511 [label="last_evaluation <= 0.735\ngini = 0.219\nsamples = 48\nvalue = [42, 6]"] ;
510 -> 511 ;
512 [label="gini = 0.0\nsamples = 19\nvalue = [19, 0]"] ;
511 -> 512 ;
513 [label="last_evaluation <= 0.745\ngini = 0.328\nsamples = 29\nvalue = [23, 6]"] ;
511 -> 513 ;
514 [label="gini = 0.0\nsamples = 3\nvalue = [0, 3]"] ;
513 -> 514 ;
515 [label="number_project <= 5.5\ngini = 0.204\nsamples = 26\nvalue = [23, 3]"] ;
513 -> 515 ;
516 [label="last_evaluation <= 0.925\ngini = 0.091\nsamples = 21\nvalue = [20, 1]"] ;
515 -> 516 ;
517 [label="gini = 0.0\nsamples = 16\nvalue = [16, 0]"] ;
516 -> 517 ;
518 [label="last_evaluation <= 0.935\ngini = 0.32\nsamples = 5\nvalue = [4, 1]"] ;
516 -> 518 ;
519 [label="gini = 0.0\nsamples = 1\nvalue = [0, 1]"] ;
518 -> 519 ;
520 [label="gini = 0.0\nsamples = 4\nvalue = [4, 0]"] ;
518 -> 520 ;
521 [label="average_montly_hours <= 163.5\ngini = 0.48\nsamples = 5\nvalue = [3, 2]"] ;
515 -> 521 ;
522 [label="gini = 0.0\nsamples = 2\nvalue = [0, 2]"] ;
521 -> 522 ;
523 [label="gini = 0.0\nsamples = 3\nvalue = [3, 0]"] ;
521 -> 523 ;
524 [label="gini = 0.0\nsamples = 2\nvalue = [0, 2]"] ;
510 -> 524 ;
525 [label="number_project <= 2.5\ngini = 0.059\nsamples = 33\nvalue = [32, 1]"] ;
509 -> 525 ;
526 [label="last_evaluation <= 0.67\ngini = 0.32\nsamples = 5\nvalue = [4, 1]"] ;
525 -> 526 ;
527 [label="gini = 0.0\nsamples = 1\nvalue = [0, 1]"] ;
526 -> 527 ;
528 [label="gini = 0.0\nsamples = 4\nvalue = [4, 0]"] ;
526 -> 528 ;
529 [label="gini = 0.0\nsamples = 28\nvalue = [28, 0]"] ;
525 -> 529 ;
530 [label="gini = 0.0\nsamples = 4\nvalue = [0, 4]"] ;
236 -> 530 ;
531 [label="gini = 0.0\nsamples = 4\nvalue = [0, 4]"] ;
235 -> 531 ;
532 [label="last_evaluation <= 0.805\ngini = 0.496\nsamples = 1592\nvalue = [868, 724]"] ;
234 -> 532 ;
533 [label="average_montly_hours <= 272.5\ngini = 0.073\nsamples = 610\nvalue = [587, 23]"] ;
532 -> 533 ;
534 [label="number_project <= 6.5\ngini = 0.053\nsamples = 582\nvalue = [566, 16]"] ;
533 -> 534 ;
535 [label="time_spend_company <= 5.5\ngini = 0.05\nsamples = 581\nvalue = [566, 15]"] ;
534 -> 535 ;
536 [label="sales_technical <= 0.5\ngini = 0.124\nsamples = 181\nvalue = [169, 12]"] ;
535 -> 536 ;
537 [label="sales_marketing <= 0.5\ngini = 0.065\nsamples = 148\nvalue = [143, 5]"] ;
536 -> 537 ;
538 [label="satisfaction_level <= 0.665\ngini = 0.043\nsamples = 136\nvalue = [133, 3]"] ;
537 -> 538 ;
539 [label="gini = 0.0\nsamples = 56\nvalue = [56, 0]"] ;
538 -> 539 ;
540 [label="satisfaction_level <= 0.685\ngini = 0.072\nsamples = 80\nvalue = [77, 3]"] ;
538 -> 540 ;
541 [label="average_montly_hours <= 201.5\ngini = 0.375\nsamples = 8\nvalue = [6, 2]"] ;
540 -> 541 ;
542 [label="gini = 0.0\nsamples = 2\nvalue = [0, 2]"] ;
541 -> 542 ;
543 [label="gini = 0.0\nsamples = 6\nvalue = [6, 0]"] ;
541 -> 543 ;
544 [label="sales_support <= 0.5\ngini = 0.027\nsamples = 72\nvalue = [71, 1]"] ;
540 -> 544 ;
545 [label="gini = 0.0\nsamples = 51\nvalue = [51, 0]"] ;
544 -> 545 ;
546 [label="number_project <= 4.5\ngini = 0.091\nsamples = 21\nvalue = [20, 1]"] ;
544 -> 546 ;
547 [label="gini = 0.0\nsamples = 13\nvalue = [13, 0]"] ;
546 -> 547 ;
548 [label="satisfaction_level <= 0.82\ngini = 0.219\nsamples = 8\nvalue = [7, 1]"] ;
546 -> 548 ;
549 [label="satisfaction_level <= 0.75\ngini = 0.5\nsamples = 2\nvalue = [1, 1]"] ;
548 -> 549 ;
550 [label="gini = 0.0\nsamples = 1\nvalue = [1, 0]"] ;
549 -> 550 ;
551 [label="gini = 0.0\nsamples = 1\nvalue = [0, 1]"] ;
549 -> 551 ;
552 [label="gini = 0.0\nsamples = 6\nvalue = [6, 0]"] ;
548 -> 552 ;
553 [label="average_montly_hours <= 235.5\ngini = 0.278\nsamples = 12\nvalue = [10, 2]"] ;
537 -> 553 ;
554 [label="gini = 0.0\nsamples = 10\nvalue = [10, 0]"] ;
553 -> 554 ;
555 [label="gini = 0.0\nsamples = 2\nvalue = [0, 2]"] ;
553 -> 555 ;
556 [label="salary_high <= 0.5\ngini = 0.334\nsamples = 33\nvalue = [26, 7]"] ;
536 -> 556 ;
557 [label="salary_medium <= 0.5\ngini = 0.133\nsamples = 28\nvalue = [26, 2]"] ;
556 -> 557 ;
558 [label="average_montly_hours <= 166.5\ngini = 0.32\nsamples = 10\nvalue = [8, 2]"] ;
557 -> 558 ;
559 [label="average_montly_hours <= 146.5\ngini = 0.5\nsamples = 4\nvalue = [2, 2]"] ;
558 -> 559 ;
560 [label="gini = 0.0\nsamples = 2\nvalue = [2, 0]"] ;
559 -> 560 ;
561 [label="gini = 0.0\nsamples = 2\nvalue = [0, 2]"] ;
559 -> 561 ;
562 [label="gini = 0.0\nsamples = 6\nvalue = [6, 0]"] ;
558 -> 562 ;
563 [label="gini = 0.0\nsamples = 18\nvalue = [18, 0]"] ;
557 -> 563 ;
564 [label="gini = 0.0\nsamples = 5\nvalue = [0, 5]"] ;
556 -> 564 ;
565 [label="sales_support <= 0.5\ngini = 0.015\nsamples = 400\nvalue = [397, 3]"] ;
535 -> 565 ;
566 [label="average_montly_hours <= 132.5\ngini = 0.005\nsamples = 372\nvalue = [371, 1]"] ;
565 -> 566 ;
567 [label="average_montly_hours <= 131.5\ngini = 0.056\nsamples = 35\nvalue = [34, 1]"] ;
566 -> 567 ;
568 [label="gini = 0.0\nsamples = 33\nvalue = [33, 0]"] ;
567 -> 568 ;
569 [label="sales_technical <= 0.5\ngini = 0.5\nsamples = 2\nvalue = [1, 1]"] ;
567 -> 569 ;
570 [label="gini = 0.0\nsamples = 1\nvalue = [0, 1]"] ;
569 -> 570 ;
571 [label="gini = 0.0\nsamples = 1\nvalue = [1, 0]"] ;
569 -> 571 ;
572 [label="gini = 0.0\nsamples = 337\nvalue = [337, 0]"] ;
566 -> 572 ;
573 [label="satisfaction_level <= 0.845\ngini = 0.133\nsamples = 28\nvalue = [26, 2]"] ;
565 -> 573 ;
574 [label="gini = 0.0\nsamples = 20\nvalue = [20, 0]"] ;
573 -> 574 ;
575 [label="satisfaction_level <= 0.895\ngini = 0.375\nsamples = 8\nvalue = [6, 2]"] ;
573 -> 575 ;
576 [label="gini = 0.0\nsamples = 2\nvalue = [0, 2]"] ;
575 -> 576 ;
577 [label="gini = 0.0\nsamples = 6\nvalue = [6, 0]"] ;
575 -> 577 ;
578 [label="gini = 0.0\nsamples = 1\nvalue = [0, 1]"] ;
534 -> 578 ;
579 [label="sales_technical <= 0.5\ngini = 0.375\nsamples = 28\nvalue = [21, 7]"] ;
533 -> 579 ;
580 [label="sales_support <= 0.5\ngini = 0.269\nsamples = 25\nvalue = [21, 4]"] ;
579 -> 580 ;
581 [label="sales_hr <= 0.5\ngini = 0.159\nsamples = 23\nvalue = [21, 2]"] ;
580 -> 581 ;
582 [label="gini = 0.0\nsamples = 18\nvalue = [18, 0]"] ;
581 -> 582 ;
583 [label="average_montly_hours <= 278.0\ngini = 0.48\nsamples = 5\nvalue = [3, 2]"] ;
581 -> 583 ;
584 [label="gini = 0.0\nsamples = 3\nvalue = [3, 0]"] ;
583 -> 584 ;
585 [label="gini = 0.0\nsamples = 2\nvalue = [0, 2]"] ;
583 -> 585 ;
586 [label="gini = 0.0\nsamples = 2\nvalue = [0, 2]"] ;
580 -> 586 ;
587 [label="gini = 0.0\nsamples = 3\nvalue = [0, 3]"] ;
579 -> 587 ;
588 [label="average_montly_hours <= 216.5\ngini = 0.409\nsamples = 982\nvalue = [281, 701]"] ;
532 -> 588 ;
589 [label="last_evaluation <= 0.995\ngini = 0.098\nsamples = 174\nvalue = [165, 9]"] ;
588 -> 589 ;
590 [label="sales_support <= 0.5\ngini = 0.078\nsamples = 172\nvalue = [165, 7]"] ;
589 -> 590 ;
591 [label="sales_hr <= 0.5\ngini = 0.028\nsamples = 141\nvalue = [139, 2]"] ;
590 -> 591 ;
592 [label="number_project <= 2.5\ngini = 0.015\nsamples = 134\nvalue = [133, 1]"] ;
591 -> 592 ;
593 [label="sales_technical <= 0.5\ngini = 0.18\nsamples = 10\nvalue = [9, 1]"] ;
592 -> 593 ;
594 [label="gini = 0.0\nsamples = 7\nvalue = [7, 0]"] ;
593 -> 594 ;
595 [label="average_montly_hours <= 170.5\ngini = 0.444\nsamples = 3\nvalue = [2, 1]"] ;
593 -> 595 ;
596 [label="gini = 0.0\nsamples = 2\nvalue = [2, 0]"] ;
595 -> 596 ;
597 [label="gini = 0.0\nsamples = 1\nvalue = [0, 1]"] ;
595 -> 597 ;
598 [label="gini = 0.0\nsamples = 124\nvalue = [124, 0]"] ;
592 -> 598 ;
599 [label="salary_medium <= 0.5\ngini = 0.245\nsamples = 7\nvalue = [6, 1]"] ;
591 -> 599 ;
600 [label="gini = 0.0\nsamples = 1\nvalue = [0, 1]"] ;
599 -> 600 ;
601 [label="gini = 0.0\nsamples = 6\nvalue = [6, 0]"] ;
599 -> 601 ;
602 [label="satisfaction_level <= 0.555\ngini = 0.271\nsamples = 31\nvalue = [26, 5]"] ;
590 -> 602 ;
603 [label="average_montly_hours <= 175.0\ngini = 0.48\nsamples = 5\nvalue = [2, 3]"] ;
602 -> 603 ;
604 [label="gini = 0.0\nsamples = 3\nvalue = [0, 3]"] ;
603 -> 604 ;
605 [label="gini = 0.0\nsamples = 2\nvalue = [2, 0]"] ;
603 -> 605 ;
606 [label="time_spend_company <= 5.5\ngini = 0.142\nsamples = 26\nvalue = [24, 2]"] ;
602 -> 606 ;
607 [label="average_montly_hours <= 163.0\ngini = 0.408\nsamples = 7\nvalue = [5, 2]"] ;
606 -> 607 ;
608 [label="gini = 0.0\nsamples = 4\nvalue = [4, 0]"] ;
607 -> 608 ;
609 [label="salary_low <= 0.5\ngini = 0.444\nsamples = 3\nvalue = [1, 2]"] ;
607 -> 609 ;
610 [label="gini = 0.0\nsamples = 1\nvalue = [1, 0]"] ;
609 -> 610 ;
611 [label="gini = 0.0\nsamples = 2\nvalue = [0, 2]"] ;
609 -> 611 ;
612 [label="gini = 0.0\nsamples = 19\nvalue = [19, 0]"] ;
606 -> 612 ;
613 [label="gini = 0.0\nsamples = 2\nvalue = [0, 2]"] ;
589 -> 613 ;
614 [label="time_spend_company <= 6.5\ngini = 0.246\nsamples = 808\nvalue = [116, 692]"] ;
588 -> 614 ;
615 [label="satisfaction_level <= 0.715\ngini = 0.149\nsamples = 753\nvalue = [61, 692]"] ;
614 -> 615 ;
616 [label="last_evaluation <= 0.915\ngini = 0.313\nsamples = 36\nvalue = [29, 7]"] ;
615 -> 616 ;
617 [label="gini = 0.0\nsamples = 22\nvalue = [22, 0]"] ;
616 -> 617 ;
618 [label="last_evaluation <= 0.94\ngini = 0.5\nsamples = 14\nvalue = [7, 7]"] ;
616 -> 618 ;
619 [label="salary_medium <= 0.5\ngini = 0.278\nsamples = 6\nvalue = [1, 5]"] ;
618 -> 619 ;
620 [label="gini = 0.0\nsamples = 5\nvalue = [0, 5]"] ;
619 -> 620 ;
621 [label="gini = 0.0\nsamples = 1\nvalue = [1, 0]"] ;
619 -> 621 ;
622 [label="average_montly_hours <= 265.5\ngini = 0.375\nsamples = 8\nvalue = [6, 2]"] ;
618 -> 622 ;
623 [label="gini = 0.0\nsamples = 6\nvalue = [6, 0]"] ;
622 -> 623 ;
624 [label="gini = 0.0\nsamples = 2\nvalue = [0, 2]"] ;
622 -> 624 ;
625 [label="number_project <= 3.5\ngini = 0.085\nsamples = 717\nvalue = [32, 685]"] ;
615 -> 625 ;
626 [label="average_montly_hours <= 296.5\ngini = 0.111\nsamples = 17\nvalue = [16, 1]"] ;
625 -> 626 ;
627 [label="gini = 0.0\nsamples = 16\nvalue = [16, 0]"] ;
626 -> 627 ;
628 [label="gini = 0.0\nsamples = 1\nvalue = [0, 1]"] ;
626 -> 628 ;
629 [label="number_project <= 5.5\ngini = 0.045\nsamples = 700\nvalue = [16, 684]"] ;
625 -> 629 ;
630 [label="satisfaction_level <= 0.925\ngini = 0.028\nsamples = 694\nvalue = [10, 684]"] ;
629 -> 630 ;
631 [label="average_montly_hours <= 223.5\ngini = 0.023\nsamples = 692\nvalue = [8, 684]"] ;
630 -> 631 ;
632 [label="last_evaluation <= 0.88\ngini = 0.083\nsamples = 69\nvalue = [3, 66]"] ;
631 -> 632 ;
633 [label="last_evaluation <= 0.865\ngini = 0.245\nsamples = 21\nvalue = [3, 18]"] ;
632 -> 633 ;
634 [label="satisfaction_level <= 0.775\ngini = 0.111\nsamples = 17\nvalue = [1, 16]"] ;
633 -> 634 ;
635 [label="sales_technical <= 0.5\ngini = 0.444\nsamples = 3\nvalue = [1, 2]"] ;
634 -> 635 ;
636 [label="gini = 0.0\nsamples = 2\nvalue = [0, 2]"] ;
635 -> 636 ;
637 [label="gini = 0.0\nsamples = 1\nvalue = [1, 0]"] ;
635 -> 637 ;
638 [label="gini = 0.0\nsamples = 14\nvalue = [0, 14]"] ;
634 -> 638 ;
639 [label="salary_medium <= 0.5\ngini = 0.5\nsamples = 4\nvalue = [2, 2]"] ;
633 -> 639 ;
640 [label="gini = 0.0\nsamples = 2\nvalue = [0, 2]"] ;
639 -> 640 ;
641 [label="gini = 0.0\nsamples = 2\nvalue = [2, 0]"] ;
639 -> 641 ;
642 [label="gini = 0.0\nsamples = 48\nvalue = [0, 48]"] ;
632 -> 642 ;
643 [label="Work_accident <= 0.5\ngini = 0.016\nsamples = 623\nvalue = [5, 618]"] ;
631 -> 643 ;
644 [label="sales_management <= 0.5\ngini = 0.01\nsamples = 593\nvalue = [3, 590]"] ;
643 -> 644 ;
645 [label="last_evaluation <= 0.835\ngini = 0.007\nsamples = 576\nvalue = [2, 574]"] ;
644 -> 645 ;
646 [label="satisfaction_level <= 0.735\ngini = 0.056\nsamples = 35\nvalue = [1, 34]"] ;
645 -> 646 ;
647 [label="gini = 0.0\nsamples = 1\nvalue = [1, 0]"] ;
646 -> 647 ;
648 [label="gini = 0.0\nsamples = 34\nvalue = [0, 34]"] ;
646 -> 648 ;
649 [label="time_spend_company <= 5.5\ngini = 0.004\nsamples = 541\nvalue = [1, 540]"] ;
645 -> 649 ;
650 [label="gini = 0.0\nsamples = 433\nvalue = [0, 433]"] ;
649 -> 650 ;
651 [label="salary_medium <= 0.5\ngini = 0.018\nsamples = 108\nvalue = [1, 107]"] ;
649 -> 651 ;
652 [label="gini = 0.0\nsamples = 76\nvalue = [0, 76]"] ;
651 -> 652 ;
653 [label="average_montly_hours <= 244.0\ngini = 0.061\nsamples = 32\nvalue = [1, 31]"] ;
651 -> 653 ;
654 [label="average_montly_hours <= 237.5\ngini = 0.198\nsamples = 9\nvalue = [1, 8]"] ;
653 -> 654 ;
655 [label="gini = 0.0\nsamples = 6\nvalue = [0, 6]"] ;
654 -> 655 ;
656 [label="satisfaction_level <= 0.78\ngini = 0.444\nsamples = 3\nvalue = [1, 2]"] ;
654 -> 656 ;
657 [label="gini = 0.0\nsamples = 2\nvalue = [0, 2]"] ;
656 -> 657 ;
658 [label="gini = 0.0\nsamples = 1\nvalue = [1, 0]"] ;
656 -> 658 ;
659 [label="gini = 0.0\nsamples = 23\nvalue = [0, 23]"] ;
653 -> 659 ;
660 [label="satisfaction_level <= 0.89\ngini = 0.111\nsamples = 17\nvalue = [1, 16]"] ;
644 -> 660 ;
661 [label="gini = 0.0\nsamples = 16\nvalue = [0, 16]"] ;
660 -> 661 ;
662 [label="gini = 0.0\nsamples = 1\nvalue = [1, 0]"] ;
660 -> 662 ;
663 [label="last_evaluation <= 0.965\ngini = 0.124\nsamples = 30\nvalue = [2, 28]"] ;
643 -> 663 ;
664 [label="gini = 0.0\nsamples = 21\nvalue = [0, 21]"] ;
663 -> 664 ;
665 [label="sales_support <= 0.5\ngini = 0.346\nsamples = 9\nvalue = [2, 7]"] ;
663 -> 665 ;
666 [label="salary_medium <= 0.5\ngini = 0.219\nsamples = 8\nvalue = [1, 7]"] ;
665 -> 666 ;
667 [label="sales_IT <= 0.5\ngini = 0.5\nsamples = 2\nvalue = [1, 1]"] ;
666 -> 667 ;
668 [label="gini = 0.0\nsamples = 1\nvalue = [1, 0]"] ;
667 -> 668 ;
669 [label="gini = 0.0\nsamples = 1\nvalue = [0, 1]"] ;
667 -> 669 ;
670 [label="gini = 0.0\nsamples = 6\nvalue = [0, 6]"] ;
666 -> 670 ;
671 [label="gini = 0.0\nsamples = 1\nvalue = [1, 0]"] ;
665 -> 671 ;
672 [label="gini = 0.0\nsamples = 2\nvalue = [2, 0]"] ;
630 -> 672 ;
673 [label="gini = 0.0\nsamples = 6\nvalue = [6, 0]"] ;
629 -> 673 ;
674 [label="gini = 0.0\nsamples = 55\nvalue = [55, 0]"] ;
614 -> 674 ;
}